<?xml version="1.0"?>
<opencv_storage>
<cascade>
  <stageType>BOOST</stageType>
  <featureType>HAAR</featureType>
  <height>15</height>
  <width>15</width>
  <stageParams>
    <boostType>GAB</boostType>
    <minHitRate>9.9500000476837158e-01</minHitRate>
    <maxFalseAlarm>5.0000000000000000e-01</maxFalseAlarm>
    <weightTrimRate>9.4999999999999996e-01</weightTrimRate>
    <maxDepth>1</maxDepth>
    <maxWeakCount>100</maxWeakCount></stageParams>
  <featureParams>
    <maxCatCount>0</maxCatCount>
    <featSize>1</featSize>
    <mode>ALL</mode></featureParams>
  <stageNum>35</stageNum>
  <stages>
    <!-- stage 0 -->
    <_>
      <maxWeakCount>2</maxWeakCount>
      <stageThreshold>7.0990705490112305e-01</stageThreshold>
      <weakClassifiers>
        <_>
          <internalNodes>
            0 -1 8 8.9009679853916168e-02</internalNodes>
          <leafValues>
            -2.5000000000000000e-01 9.9710983037948608e-01</leafValues></_>
        <_>
          <internalNodes>
            0 -1 25 -4.9269568175077438e-02</internalNodes>
          <leafValues>
            -1. 9.5990705490112305e-01</leafValues></_></weakClassifiers></_>
    <!-- stage 1 -->
    <_>
      <maxWeakCount>1</maxWeakCount>
      <stageThreshold>9.8016995191574097e-01</stageThreshold>
      <weakClassifiers>
        <_>
          <internalNodes>
            0 -1 58 -4.0377199649810791e-02</internalNodes>
          <leafValues>
            -8.0000001192092896e-01 9.8016995191574097e-01</leafValues></_></weakClassifiers></_>
    <!-- stage 2 -->
    <_>
      <maxWeakCount>1</maxWeakCount>
      <stageThreshold>9.8016995191574097e-01</stageThreshold>
      <weakClassifiers>
        <_>
          <internalNodes>
            0 -1 6 -6.0859739780426025e-02</internalNodes>
          <leafValues>
            -8.0000001192092896e-01 9.8016995191574097e-01</leafValues></_></weakClassifiers></_>
    <!-- stage 3 -->
    <_>
      <maxWeakCount>1</maxWeakCount>
      <stageThreshold>9.9428570270538330e-01</stageThreshold>
      <weakClassifiers>
        <_>
          <internalNodes>
            0 -1 15 3.2118439674377441e-02</internalNodes>
          <leafValues>
            -7.5000000000000000e-01 9.9428570270538330e-01</leafValues></_></weakClassifiers></_>
    <!-- stage 4 -->
    <_>
      <maxWeakCount>2</maxWeakCount>
      <stageThreshold>3.9056494832038879e-01</stageThreshold>
      <weakClassifiers>
        <_>
          <internalNodes>
            0 -1 3 -8.5943164303898811e-03</internalNodes>
          <leafValues>
            9.9711400270462036e-01 -3.0434781312942505e-01</leafValues></_>
        <_>
          <internalNodes>
            0 -1 2 7.3113843798637390e-02</internalNodes>
          <leafValues>
            -6.0654902458190918e-01 9.8333323001861572e-01</leafValues></_></weakClassifiers></_>
    <!-- stage 5 -->
    <_>
      <maxWeakCount>1</maxWeakCount>
      <stageThreshold>9.8016995191574097e-01</stageThreshold>
      <weakClassifiers>
        <_>
          <internalNodes>
            0 -1 4 -2.6357287168502808e-01</internalNodes>
          <leafValues>
            -8.0000001192092896e-01 9.8016995191574097e-01</leafValues></_></weakClassifiers></_>
    <!-- stage 6 -->
    <_>
      <maxWeakCount>1</maxWeakCount>
      <stageThreshold>9.8858773708343506e-01</stageThreshold>
      <weakClassifiers>
        <_>
          <internalNodes>
            0 -1 15 6.4915589988231659e-02</internalNodes>
          <leafValues>
            -6.0000002384185791e-01 9.8858773708343506e-01</leafValues></_></weakClassifiers></_>
    <!-- stage 7 -->
    <_>
      <maxWeakCount>1</maxWeakCount>
      <stageThreshold>9.9428570270538330e-01</stageThreshold>
      <weakClassifiers>
        <_>
          <internalNodes>
            0 -1 24 2.3067736998200417e-02</internalNodes>
          <leafValues>
            -7.5000000000000000e-01 9.9428570270538330e-01</leafValues></_></weakClassifiers></_>
    <!-- stage 8 -->
    <_>
      <maxWeakCount>3</maxWeakCount>
      <stageThreshold>1.2453624010086060e+00</stageThreshold>
      <weakClassifiers>
        <_>
          <internalNodes>
            0 -1 15 1.0708718746900558e-01</internalNodes>
          <leafValues>
            -2.6315790414810181e-01 9.8852223157882690e-01</leafValues></_>
        <_>
          <internalNodes>
            0 -1 34 7.2460374212823808e-05</internalNodes>
          <leafValues>
            -6.8837559223175049e-01 9.7130477428436279e-01</leafValues></_>
        <_>
          <internalNodes>
            0 -1 7 3.0948355793952942e-02</internalNodes>
          <leafValues>
            -6.6428238153457642e-01 9.4521576166152954e-01</leafValues></_></weakClassifiers></_>
    <!-- stage 9 -->
    <_>
      <maxWeakCount>1</maxWeakCount>
      <stageThreshold>9.7740113735198975e-01</stageThreshold>
      <weakClassifiers>
        <_>
          <internalNodes>
            0 -1 10 6.0558822005987167e-02</internalNodes>
          <leafValues>
            9.7740113735198975e-01 -1.</leafValues></_></weakClassifiers></_>
    <!-- stage 10 -->
    <_>
      <maxWeakCount>3</maxWeakCount>
      <stageThreshold>2.5844597816467285e-01</stageThreshold>
      <weakClassifiers>
        <_>
          <internalNodes>
            0 -1 14 3.4432947635650635e-02</internalNodes>
          <leafValues>
            -1.5789473056793213e-01 9.8565280437469482e-01</leafValues></_>
        <_>
          <internalNodes>
            0 -1 0 6.7385109141469002e-03</internalNodes>
          <leafValues>
            -4.8971414566040039e-01 9.6784198284149170e-01</leafValues></_>
        <_>
          <internalNodes>
            0 -1 17 6.0044578276574612e-05</internalNodes>
          <leafValues>
            -5.5150127410888672e-01 9.6878218650817871e-01</leafValues></_></weakClassifiers></_>
    <!-- stage 11 -->
    <_>
      <maxWeakCount>3</maxWeakCount>
      <stageThreshold>1.2619462013244629e+00</stageThreshold>
      <weakClassifiers>
        <_>
          <internalNodes>
            0 -1 22 -2.1009738743305206e-01</internalNodes>
          <leafValues>
            -1. 9.7461211681365967e-01</leafValues></_>
        <_>
          <internalNodes>
            0 -1 12 1.1052429676055908e-02</internalNodes>
          <leafValues>
            1. -5.0124174356460571e-01</leafValues></_>
        <_>
          <internalNodes>
            0 -1 52 -8.0938711762428284e-03</internalNodes>
          <leafValues>
            -7.1266591548919678e-01 9.3552684783935547e-01</leafValues></_></weakClassifiers></_>
    <!-- stage 12 -->
    <_>
      <maxWeakCount>1</maxWeakCount>
      <stageThreshold>9.8011362552642822e-01</stageThreshold>
      <weakClassifiers>
        <_>
          <internalNodes>
            0 -1 48 7.0345267653465271e-02</internalNodes>
          <leafValues>
            9.8011362552642822e-01 -5.0000000000000000e-01</leafValues></_></weakClassifiers></_>
    <!-- stage 13 -->
    <_>
      <maxWeakCount>1</maxWeakCount>
      <stageThreshold>9.8019802570343018e-01</stageThreshold>
      <weakClassifiers>
        <_>
          <internalNodes>
            0 -1 45 -1.0731614381074905e-01</internalNodes>
          <leafValues>
            -1. 9.8019802570343018e-01</leafValues></_></weakClassifiers></_>
    <!-- stage 14 -->
    <_>
      <maxWeakCount>1</maxWeakCount>
      <stageThreshold>9.7733712196350098e-01</stageThreshold>
      <weakClassifiers>
        <_>
          <internalNodes>
            0 -1 30 9.3031767755746841e-04</internalNodes>
          <leafValues>
            -6.0000002384185791e-01 9.7733712196350098e-01</leafValues></_></weakClassifiers></_>
    <!-- stage 15 -->
    <_>
      <maxWeakCount>1</maxWeakCount>
      <stageThreshold>9.8016995191574097e-01</stageThreshold>
      <weakClassifiers>
        <_>
          <internalNodes>
            0 -1 5 3.8082090020179749e-01</internalNodes>
          <leafValues>
            9.8016995191574097e-01 -8.0000001192092896e-01</leafValues></_></weakClassifiers></_>
    <!-- stage 16 -->
    <_>
      <maxWeakCount>1</maxWeakCount>
      <stageThreshold>9.8293030261993408e-01</stageThreshold>
      <weakClassifiers>
        <_>
          <internalNodes>
            0 -1 26 -3.5817176103591919e-02</internalNodes>
          <leafValues>
            9.8293030261993408e-01 -5.3846156597137451e-01</leafValues></_></weakClassifiers></_>
    <!-- stage 17 -->
    <_>
      <maxWeakCount>1</maxWeakCount>
      <stageThreshold>9.7736918926239014e-01</stageThreshold>
      <weakClassifiers>
        <_>
          <internalNodes>
            0 -1 21 -1.8764434382319450e-02</internalNodes>
          <leafValues>
            -7.7777779102325439e-01 9.7736918926239014e-01</leafValues></_></weakClassifiers></_>
    <!-- stage 18 -->
    <_>
      <maxWeakCount>1</maxWeakCount>
      <stageThreshold>9.8011362552642822e-01</stageThreshold>
      <weakClassifiers>
        <_>
          <internalNodes>
            0 -1 18 6.3137821853160858e-02</internalNodes>
          <leafValues>
            9.8011362552642822e-01 -5.0000000000000000e-01</leafValues></_></weakClassifiers></_>
    <!-- stage 19 -->
    <_>
      <maxWeakCount>3</maxWeakCount>
      <stageThreshold>1.4506731033325195e+00</stageThreshold>
      <weakClassifiers>
        <_>
          <internalNodes>
            0 -1 47 7.2770998813211918e-03</internalNodes>
          <leafValues>
            9.7457629442214966e-01 -7.5000000000000000e-01</leafValues></_>
        <_>
          <internalNodes>
            0 -1 9 1.0661279520718381e-04</internalNodes>
          <leafValues>
            -3.6364293098449707e-01 9.9627918004989624e-01</leafValues></_>
        <_>
          <internalNodes>
            0 -1 11 6.2808932852931321e-05</internalNodes>
          <leafValues>
            -5.2018243074417114e-01 9.5983934402465820e-01</leafValues></_></weakClassifiers></_>
    <!-- stage 20 -->
    <_>
      <maxWeakCount>3</maxWeakCount>
      <stageThreshold>1.3468918800354004e+00</stageThreshold>
      <weakClassifiers>
        <_>
          <internalNodes>
            0 -1 36 -1.2605490162968636e-02</internalNodes>
          <leafValues>
            -3.3333334326744080e-01 9.8853868246078491e-01</leafValues></_>
        <_>
          <internalNodes>
            0 -1 44 -1.0372336953878403e-01</internalNodes>
          <leafValues>
            -6.0516422986984253e-01 9.5738232135772705e-01</leafValues></_>
        <_>
          <internalNodes>
            0 -1 40 -6.4950197935104370e-02</internalNodes>
          <leafValues>
            9.6351736783981323e-01 -5.0456380844116211e-01</leafValues></_></weakClassifiers></_>
    <!-- stage 21 -->
    <_>
      <maxWeakCount>1</maxWeakCount>
      <stageThreshold>9.7740113735198975e-01</stageThreshold>
      <weakClassifiers>
        <_>
          <internalNodes>
            0 -1 13 3.8836336135864258e-01</internalNodes>
          <leafValues>
            9.7740113735198975e-01 -1.</leafValues></_></weakClassifiers></_>
    <!-- stage 22 -->
    <_>
      <maxWeakCount>1</maxWeakCount>
      <stageThreshold>9.7733712196350098e-01</stageThreshold>
      <weakClassifiers>
        <_>
          <internalNodes>
            0 -1 41 3.1772941350936890e-02</internalNodes>
          <leafValues>
            9.7733712196350098e-01 -6.0000002384185791e-01</leafValues></_></weakClassifiers></_>
    <!-- stage 23 -->
    <_>
      <maxWeakCount>4</maxWeakCount>
      <stageThreshold>6.5892708301544189e-01</stageThreshold>
      <weakClassifiers>
        <_>
          <internalNodes>
            0 -1 42 -1.3617399334907532e-01</internalNodes>
          <leafValues>
            -1. 9.6905767917633057e-01</leafValues></_>
        <_>
          <internalNodes>
            0 -1 19 -5.7458446826785803e-04</internalNodes>
          <leafValues>
            9.6024763584136963e-01 -6.1295735836029053e-01</leafValues></_>
        <_>
          <internalNodes>
            0 -1 55 -5.0236680544912815e-04</internalNodes>
          <leafValues>
            9.7731208801269531e-01 -5.3743773698806763e-01</leafValues></_>
        <_>
          <internalNodes>
            0 -1 28 4.7067657113075256e-02</internalNodes>
          <leafValues>
            -7.3294049501419067e-01 8.8689780235290527e-01</leafValues></_></weakClassifiers></_>
    <!-- stage 24 -->
    <_>
      <maxWeakCount>1</maxWeakCount>
      <stageThreshold>9.7730493545532227e-01</stageThreshold>
      <weakClassifiers>
        <_>
          <internalNodes>
            0 -1 3 -8.8096404215320945e-04</internalNodes>
          <leafValues>
            9.7730493545532227e-01 -4.5454546809196472e-01</leafValues></_></weakClassifiers></_>
    <!-- stage 25 -->
    <_>
      <maxWeakCount>1</maxWeakCount>
      <stageThreshold>9.7733712196350098e-01</stageThreshold>
      <weakClassifiers>
        <_>
          <internalNodes>
            0 -1 35 -4.5368000864982605e-02</internalNodes>
          <leafValues>
            -6.0000002384185791e-01 9.7733712196350098e-01</leafValues></_></weakClassifiers></_>
    <!-- stage 26 -->
    <_>
      <maxWeakCount>3</maxWeakCount>
      <stageThreshold>1.5367468595504761e+00</stageThreshold>
      <weakClassifiers>
        <_>
          <internalNodes>
            0 -1 29 9.5428183674812317e-02</internalNodes>
          <leafValues>
            9.7461211681365967e-01 -1.</leafValues></_>
        <_>
          <internalNodes>
            0 -1 59 -6.6969980252906680e-05</internalNodes>
          <leafValues>
            1. -3.7099507451057434e-01</leafValues></_>
        <_>
          <internalNodes>
            0 -1 16 8.6692918557673693e-05</internalNodes>
          <leafValues>
            -4.3786531686782837e-01 9.5542526245117188e-01</leafValues></_></weakClassifiers></_>
    <!-- stage 27 -->
    <_>
      <maxWeakCount>3</maxWeakCount>
      <stageThreshold>1.3714905977249146e+00</stageThreshold>
      <weakClassifiers>
        <_>
          <internalNodes>
            0 -1 38 -4.7204587608575821e-03</internalNodes>
          <leafValues>
            -1. 9.6905767917633057e-01</leafValues></_>
        <_>
          <internalNodes>
            0 -1 43 9.6462907094974071e-05</internalNodes>
          <leafValues>
            -4.7935670614242554e-01 9.5984542369842529e-01</leafValues></_>
        <_>
          <internalNodes>
            0 -1 49 -9.5654968172311783e-03</internalNodes>
          <leafValues>
            9.3884927034378052e-01 -5.5741250514984131e-01</leafValues></_></weakClassifiers></_>
    <!-- stage 28 -->
    <_>
      <maxWeakCount>4</maxWeakCount>
      <stageThreshold>8.1767046451568604e-01</stageThreshold>
      <weakClassifiers>
        <_>
          <internalNodes>
            0 -1 56 1.3089110143482685e-02</internalNodes>
          <leafValues>
            9.7454029321670532e-01 -5.5555558204650879e-01</leafValues></_>
        <_>
          <internalNodes>
            0 -1 51 5.8873079717159271e-02</internalNodes>
          <leafValues>
            -3.0843248963356018e-01 9.8648875951766968e-01</leafValues></_>
        <_>
          <internalNodes>
            0 -1 37 -3.6258555948734283e-02</internalNodes>
          <leafValues>
            9.4823753833770752e-01 -4.6518668532371521e-01</leafValues></_>
        <_>
          <internalNodes>
            0 -1 33 -3.7473693490028381e-02</internalNodes>
          <leafValues>
            -6.7817193269729614e-01 8.6300438642501831e-01</leafValues></_></weakClassifiers></_>
    <!-- stage 29 -->
    <_>
      <maxWeakCount>3</maxWeakCount>
      <stageThreshold>1.2707244157791138e+00</stageThreshold>
      <weakClassifiers>
        <_>
          <internalNodes>
            0 -1 53 -1.5817390382289886e-01</internalNodes>
          <leafValues>
            -7.5000000000000000e-01 9.7457629442214966e-01</leafValues></_>
        <_>
          <internalNodes>
            0 -1 27 5.3347200155258179e-02</internalNodes>
          <leafValues>
            -3.5960805416107178e-01 9.7576594352722168e-01</leafValues></_>
        <_>
          <internalNodes>
            0 -1 20 7.6079784776084125e-05</internalNodes>
          <leafValues>
            -6.7961788177490234e-01 9.4874513149261475e-01</leafValues></_></weakClassifiers></_>
    <!-- stage 30 -->
    <_>
      <maxWeakCount>3</maxWeakCount>
      <stageThreshold>1.0826733112335205e+00</stageThreshold>
      <weakClassifiers>
        <_>
          <internalNodes>
            0 -1 32 -2.8031891211867332e-02</internalNodes>
          <leafValues>
            -7.5000000000000000e-01 9.7457629442214966e-01</leafValues></_>
        <_>
          <internalNodes>
            0 -1 54 1.6748439520597458e-02</internalNodes>
          <leafValues>
            9.4359213113784790e-01 -8.2351714372634888e-01</leafValues></_>
        <_>
          <internalNodes>
            0 -1 31 1.1578209698200226e-02</internalNodes>
          <leafValues>
            9.3161416053771973e-01 -8.0552196502685547e-01</leafValues></_></weakClassifiers></_>
    <!-- stage 31 -->
    <_>
      <maxWeakCount>1</maxWeakCount>
      <stageThreshold>9.7740113735198975e-01</stageThreshold>
      <weakClassifiers>
        <_>
          <internalNodes>
            0 -1 46 1.4441238716244698e-02</internalNodes>
          <leafValues>
            9.7740113735198975e-01 -1.</leafValues></_></weakClassifiers></_>
    <!-- stage 32 -->
    <_>
      <maxWeakCount>3</maxWeakCount>
      <stageThreshold>1.2219592332839966e+00</stageThreshold>
      <weakClassifiers>
        <_>
          <internalNodes>
            0 -1 39 -5.1142908632755280e-03</internalNodes>
          <leafValues>
            -7.5000000000000000e-01 9.7457629442214966e-01</leafValues></_>
        <_>
          <internalNodes>
            0 -1 57 5.9405448846518993e-03</internalNodes>
          <leafValues>
            9.6580666303634644e-01 -6.4352917671203613e-01</leafValues></_>
        <_>
          <internalNodes>
            0 -1 23 6.5890875703189522e-05</internalNodes>
          <leafValues>
            -7.1842366456985474e-01 9.1781502962112427e-01</leafValues></_></weakClassifiers></_>
    <!-- stage 33 -->
    <_>
      <maxWeakCount>1</maxWeakCount>
      <stageThreshold>9.8016995191574097e-01</stageThreshold>
      <weakClassifiers>
        <_>
          <internalNodes>
            0 -1 50 1.1567454785108566e-02</internalNodes>
          <leafValues>
            9.8016995191574097e-01 -8.0000001192092896e-01</leafValues></_></weakClassifiers></_>
    <!-- stage 34 -->
    <_>
      <maxWeakCount>1</maxWeakCount>
      <stageThreshold>9.8860400915145874e-01</stageThreshold>
      <weakClassifiers>
        <_>
          <internalNodes>
            0 -1 1 7.9209975898265839e-02</internalNodes>
          <leafValues>
            -7.1428573131561279e-01 9.8860400915145874e-01</leafValues></_></weakClassifiers></_></stages>
  <features>
    <_>
      <rects>
        <_>
          0 0 6 1 -1.</_>
        <_>
          3 0 3 1 2.</_></rects>
      <tilted>0</tilted></_>
    <_>
      <rects>
        <_>
          0 0 15 5 -1.</_>
        <_>
          5 0 5 5 3.</_></rects>
      <tilted>0</tilted></_>
    <_>
      <rects>
        <_>
          0 0 15 6 -1.</_>
        <_>
          5 0 5 6 3.</_></rects>
      <tilted>0</tilted></_>
    <_>
      <rects>
        <_>
          0 0 13 8 -1.</_>
        <_>
          0 2 13 4 2.</_></rects>
      <tilted>0</tilted></_>
    <_>
      <rects>
        <_>
          0 1 14 14 -1.</_>
        <_>
          0 1 7 7 2.</_>
        <_>
          7 8 7 7 2.</_></rects>
      <tilted>0</tilted></_>
    <_>
      <rects>
        <_>
          0 1 11 12 -1.</_>
        <_>
          0 7 11 6 2.</_></rects>
      <tilted>0</tilted></_>
    <_>
      <rects>
        <_>
          0 1 15 8 -1.</_>
        <_>
          0 5 15 4 2.</_></rects>
      <tilted>0</tilted></_>
    <_>
      <rects>
        <_>
          0 2 3 12 -1.</_>
        <_>
          0 6 3 4 3.</_></rects>
      <tilted>0</tilted></_>
    <_>
      <rects>
        <_>
          0 3 15 8 -1.</_>
        <_>
          0 5 15 4 2.</_></rects>
      <tilted>0</tilted></_>
    <_>
      <rects>
        <_>
          0 7 2 1 -1.</_>
        <_>
          1 7 1 1 2.</_></rects>
      <tilted>0</tilted></_>
    <_>
      <rects>
        <_>
          0 8 14 1 -1.</_>
        <_>
          7 8 7 1 2.</_></rects>
      <tilted>0</tilted></_>
    <_>
      <rects>
        <_>
          1 0 2 1 -1.</_>
        <_>
          2 0 1 1 2.</_></rects>
      <tilted>0</tilted></_>
    <_>
      <rects>
        <_>
          1 0 12 4 -1.</_>
        <_>
          1 2 12 2 2.</_></rects>
      <tilted>0</tilted></_>
    <_>
      <rects>
        <_>
          1 1 12 10 -1.</_>
        <_>
          7 1 6 10 2.</_></rects>
      <tilted>0</tilted></_>
    <_>
      <rects>
        <_>
          1 3 3 9 -1.</_>
        <_>
          2 6 1 3 9.</_></rects>
      <tilted>0</tilted></_>
    <_>
      <rects>
        <_>
          1 3 14 8 -1.</_>
        <_>
          1 5 14 4 2.</_></rects>
      <tilted>0</tilted></_>
    <_>
      <rects>
        <_>
          1 7 2 1 -1.</_>
        <_>
          2 7 1 1 2.</_></rects>
      <tilted>0</tilted></_>
    <_>
      <rects>
        <_>
          1 7 3 1 -1.</_>
        <_>
          2 7 1 1 3.</_></rects>
      <tilted>0</tilted></_>
    <_>
      <rects>
        <_>
          1 7 6 4 -1.</_>
        <_>
          4 7 3 4 2.</_></rects>
      <tilted>0</tilted></_>
    <_>
      <rects>
        <_>
          1 8 3 2 -1.</_>
        <_>
          1 9 3 1 2.</_></rects>
      <tilted>0</tilted></_>
    <_>
      <rects>
        <_>
          2 0 2 1 -1.</_>
        <_>
          3 0 1 1 2.</_></rects>
      <tilted>0</tilted></_>
    <_>
      <rects>
        <_>
          2 5 3 5 -1.</_>
        <_>
          3 5 1 5 3.</_></rects>
      <tilted>0</tilted></_>
    <_>
      <rects>
        <_>
          2 7 7 8 -1.</_>
        <_>
          2 11 7 4 2.</_></rects>
      <tilted>0</tilted></_>
    <_>
      <rects>
        <_>
          3 0 2 1 -1.</_>
        <_>
          4 0 1 1 2.</_></rects>
      <tilted>0</tilted></_>
    <_>
      <rects>
        <_>
          3 0 9 8 -1.</_>
        <_>
          6 0 3 8 3.</_></rects>
      <tilted>0</tilted></_>
    <_>
      <rects>
        <_>
          3 0 9 12 -1.</_>
        <_>
          6 0 3 12 3.</_></rects>
      <tilted>0</tilted></_>
    <_>
      <rects>
        <_>
          3 1 6 2 -1.</_>
        <_>
          3 1 3 2 2.</_></rects>
      <tilted>1</tilted></_>
    <_>
      <rects>
        <_>
          4 0 8 13 -1.</_>
        <_>
          6 0 4 13 2.</_></rects>
      <tilted>0</tilted></_>
    <_>
      <rects>
        <_>
          4 1 8 13 -1.</_>
        <_>
          6 1 4 13 2.</_></rects>
      <tilted>0</tilted></_>
    <_>
      <rects>
        <_>
          4 1 10 6 -1.</_>
        <_>
          9 1 5 6 2.</_></rects>
      <tilted>0</tilted></_>
    <_>
      <rects>
        <_>
          4 3 6 4 -1.</_>
        <_>
          4 5 6 2 2.</_></rects>
      <tilted>0</tilted></_>
    <_>
      <rects>
        <_>
          5 0 10 1 -1.</_>
        <_>
          10 0 5 1 2.</_></rects>
      <tilted>0</tilted></_>
    <_>
      <rects>
        <_>
          5 1 8 10 -1.</_>
        <_>
          5 1 4 5 2.</_>
        <_>
          9 6 4 5 2.</_></rects>
      <tilted>0</tilted></_>
    <_>
      <rects>
        <_>
          5 8 4 6 -1.</_>
        <_>
          5 11 4 3 2.</_></rects>
      <tilted>0</tilted></_>
    <_>
      <rects>
        <_>
          6 0 2 2 -1.</_>
        <_>
          6 0 2 1 2.</_></rects>
      <tilted>1</tilted></_>
    <_>
      <rects>
        <_>
          6 0 5 4 -1.</_>
        <_>
          6 0 5 2 2.</_></rects>
      <tilted>1</tilted></_>
    <_>
      <rects>
        <_>
          6 0 9 4 -1.</_>
        <_>
          6 0 9 2 2.</_></rects>
      <tilted>1</tilted></_>
    <_>
      <rects>
        <_>
          6 0 9 6 -1.</_>
        <_>
          4 2 9 2 3.</_></rects>
      <tilted>1</tilted></_>
    <_>
      <rects>
        <_>
          6 5 2 2 -1.</_>
        <_>
          6 6 2 1 2.</_></rects>
      <tilted>0</tilted></_>
    <_>
      <rects>
        <_>
          6 12 3 1 -1.</_>
        <_>
          7 12 1 1 3.</_></rects>
      <tilted>0</tilted></_>
    <_>
      <rects>
        <_>
          7 0 2 6 -1.</_>
        <_>
          5 2 2 2 3.</_></rects>
      <tilted>1</tilted></_>
    <_>
      <rects>
        <_>
          7 0 4 11 -1.</_>
        <_>
          9 0 2 11 2.</_></rects>
      <tilted>0</tilted></_>
    <_>
      <rects>
        <_>
          7 0 7 12 -1.</_>
        <_>
          7 6 7 6 2.</_></rects>
      <tilted>0</tilted></_>
    <_>
      <rects>
        <_>
          7 0 8 4 -1.</_>
        <_>
          7 0 8 2 2.</_></rects>
      <tilted>1</tilted></_>
    <_>
      <rects>
        <_>
          7 5 3 10 -1.</_>
        <_>
          7 10 3 5 2.</_></rects>
      <tilted>0</tilted></_>
    <_>
      <rects>
        <_>
          7 6 8 9 -1.</_>
        <_>
          9 6 4 9 2.</_></rects>
      <tilted>0</tilted></_>
    <_>
      <rects>
        <_>
          8 0 3 3 -1.</_>
        <_>
          9 0 1 3 3.</_></rects>
      <tilted>0</tilted></_>
    <_>
      <rects>
        <_>
          8 14 3 1 -1.</_>
        <_>
          9 14 1 1 3.</_></rects>
      <tilted>0</tilted></_>
    <_>
      <rects>
        <_>
          9 0 6 4 -1.</_>
        <_>
          11 2 2 4 3.</_></rects>
      <tilted>1</tilted></_>
    <_>
      <rects>
        <_>
          9 0 3 4 -1.</_>
        <_>
          9 2 3 2 2.</_></rects>
      <tilted>0</tilted></_>
    <_>
      <rects>
        <_>
          9 2 6 1 -1.</_>
        <_>
          9 2 3 1 2.</_></rects>
      <tilted>1</tilted></_>
    <_>
      <rects>
        <_>
          9 4 6 6 -1.</_>
        <_>
          11 6 2 2 9.</_></rects>
      <tilted>0</tilted></_>
    <_>
      <rects>
        <_>
          9 5 6 1 -1.</_>
        <_>
          9 5 3 1 2.</_></rects>
      <tilted>1</tilted></_>
    <_>
      <rects>
        <_>
          11 0 4 11 -1.</_>
        <_>
          11 0 2 11 2.</_></rects>
      <tilted>1</tilted></_>
    <_>
      <rects>
        <_>
          11 5 4 10 -1.</_>
        <_>
          11 10 4 5 2.</_></rects>
      <tilted>0</tilted></_>
    <_>
      <rects>
        <_>
          12 8 1 2 -1.</_>
        <_>
          12 9 1 1 2.</_></rects>
      <tilted>0</tilted></_>
    <_>
      <rects>
        <_>
          12 8 3 3 -1.</_>
        <_>
          12 9 3 1 3.</_></rects>
      <tilted>0</tilted></_>
    <_>
      <rects>
        <_>
          12 13 3 2 -1.</_>
        <_>
          12 14 3 1 2.</_></rects>
      <tilted>0</tilted></_>
    <_>
      <rects>
        <_>
          13 5 2 6 -1.</_>
        <_>
          13 5 2 3 2.</_></rects>
      <tilted>1</tilted></_>
    <_>
      <rects>
        <_>
          13 7 2 1 -1.</_>
        <_>
          14 7 1 1 2.</_></rects>
      <tilted>0</tilted></_></features></cascade>
</opencv_storage>
